 1177.065175 -816.523335 1489.698523 3517.742037 1714.061423 1836.128541 -33.469032 1753.135855 4246.596763 2451.361163 755.683616 -1147.679551 1245.406989 2768.296379 1228.313792 775.225699 -1167.327533 1276.075137 2835.934510 1262.805162 -40864.354461 -137875.831810 -38124.941047 4108.453390 -81176.475495
 -50755688769480910229143164724770899880877819014719424466514548753756990314445975651019529149122873180050876489397370690279897758224695155648203992951194677652463284527996359357031039060516954698685119926831787034315886638953384689796931940024221845445879565763353960898440562572933495114082714831028224.000000 1416003263334993466234523316452406168270767510295087753109029360388549393710404403056047638007450947860308482340689162121607846467777364189281830249145269401050147051050772742995545455351849346143373350055346820608136917616217980470132157759036837498086733065316367235043025074432359713661174612492288.000000 484464926903125157818701190887392459425562455623582192700945007260576100683651411706805462271822568961642278307792068482827448834518953853196423376701825967066481122438918461620849482318600770105047610440995405766984109044915608281868342247428396932070740851088003039210839660042735143007286107205271552.000000 -13515803530552507354237528763536247100710186956517046183953967750543514499103645534301160128213253019970780292472418180250301471178486853270632898621325521124384515099373116885091197997189239275973855806575388041856164235887058191115951942709492937938092022935654225979703014979492285982396114460999680.000000 -14061383481451145998953612326042952037436200394179176025212841008151702318456086371217250126085467246955662304816931734953047239101828911502749182245608661358546826064954275308880406494098983936231192653437962943492805675298589632810419643947628871832196158002435091939436871100868376787543191030071296.000000 392290310297432079108817596343345498142439315056115461235630111169922629552749234562903742455500128155546783742178652538517779473340970284312398200668857064129406263927614060005906584652780041157283691674204485748153555764494600965246293955324114167887972281602088714972823172198790582298378397286400.000000 -621250354897862770242195378320465981322228201741685545970789780025919176475799342779898772911029182267356598962673869227160253891957434869911616575698138313471810741417061530153723133662396284279593939386533537140047555766794506611490221686884033975043554326040306167574636133079873222015587383100047360.000000 17331900151699855458487882142537882629569651995572256926965817949586251719469362246181988699845917425600191507871598412611405016864835574142833974016212939572621484107952146973061164024803240355643795309986269865729669607625404834995526747724047700441044634522047498576923851754460860237571329145962496.000000 -47376970082647059841000192975025591784719216411376622826214389709992075669250759781863153056458030362731502510822024734305941503348046424064315632360791992316940269542084974716054714711548930485839556310804026562209365605533274760168185470264342568343951171592525910670475389897700389698525885347397632.000000 1321742367612021450179562369610186816720123958414700308478117823242476119701135105971652839678446316995176884787143159713375926594264600736909259956621619766286366024561875652960658962912862453423485982306353186517819610401536683116420910536413271680551211217328710191267501953800986175991956253966336.000000
 -94753940165294119682000385950051183569438432822753245652428779419984151338501519563726306112916060725463005021644049468611883006696092848128631264721583984633880539084169949432109429423097860971679112621608053124418731211066549520336370940528685136687902343185051821340950779795400779397051770694795264.000000 2643484735224042900359124739220373633440247916829400616956235646484952239402270211943305679356892633990353769574286319426751853188529201473818519913243239532572732049123751305921317925825724906846971964612706373035639220803073366232841821072826543361102422434657420382535003907601972351983912507932672.000000 -94753940165294119682000385950051183569438432822753245652428779419984151338501519563726306112916060725463005021644049468611883006696092848128631264721583984633880539084169949432109429423097860971679112621608053124418731211066549520336370940528685136687902343185051821340950779795400779397051770694795264.000000 2643484735224042900359124739220373633440247916829400616956235646484952239402270211943305679356892633990353769574286319426751853188529201473818519913243239532572732049123751305921317925825724906846971964612706373035639220803073366232841821072826543361102422434657420382535003907601972351983912507932672.000000 -94753940165294119682000385950051183569438432822753245652428779419984151338501519563726306112916060725463005021644049468611883006696092848128631264721583984633880539084169949432109429423097860971679112621608053124418731211066549520336370940528685136687902343185051821340950779795400779397051770694795264.000000 2643484735224042900359124739220373633440247916829400616956235646484952239402270211943305679356892633990353769574286319426751853188529201473818519913243239532572732049123751305921317925825724906846971964612706373035639220803073366232841821072826543361102422434657420382535003907601972351983912507932672.000000 -94753940165294119682000385950051183569438432822753245652428779419984151338501519563726306112916060725463005021644049468611883006696092848128631264721583984633880539084169949432109429423097860971679112621608053124418731211066549520336370940528685136687902343185051821340950779795400779397051770694795264.000000 2643484735224042900359124739220373633440247916829400616956235646484952239402270211943305679356892633990353769574286319426751853188529201473818519913243239532572732049123751305921317925825724906846971964612706373035639220803073366232841821072826543361102422434657420382535003907601972351983912507932672.000000 7021520701094705152.000000 -195889297680125280.000000
 -11053.453259 19519.523262 -20418.737172 -48784.035145 -14641.167871 -9996.821907 17652.109689 -18465.706908 -44116.865727 -13240.740579 -10484.951175 18514.307736 -19367.395187 -46271.537583 -13887.261717 -10406.464206 18375.830811 -19222.684196 -45925.686345 -13783.385266 -10451.242246 18454.714486 -19305.160113 -46122.687680 -13842.521816
 -59249.808035 -1332622086.512923 -192548.853174 2353972577.647435 -57101.662395 -2461849843.198035 69333.869334 -5882221425.672860 -64324.789555 -1765090229.016828
 -20.355205 -146406.617404 -22.618836 -132400.108066 -23.568976 -138866.920781 -21.763983 -137828.161336 -23.060796 -138419.995217