 141947.721133 78255.702607 164299.724804 9630.317333 121690.735584 21906.547320 12101.987886 25373.206686 1490.338026 18789.358684 340485.048704 187670.121277 394073.778482 23093.773591 291881.338932 168038.940341 92634.391288 194495.773506 11399.575623 144056.645113 289718.763437 159691.526150 335319.394674 19650.753175 248363.250971
 4184744113860898835803067092791753552590323859851039829783805908766526322345017655176937047319978205746773532088422093938366972442328628807167277919758781268517332064965039840764785280698791543742457184256.000000 -14945812109338488080115149953736410270932782925655314256179500839180265911163217510476530955818791797063715868112434576234234635469052346944244468774225645418863575555423369924689940451290734788865899364352.000000 -114684033762356466567291624490405236226115708859132617572482796868722311844775598717807909367155791705990706873734144003843554451529948400717568844142093675912214980903146546777863144029946151694982067519488.000000 409593985657540536024995154129535192711405770311901520165416960146958023378800798527438950700497954443562761145871131652436363879550546245799935415971628847723031748564828954260884217389236860607588670111744.000000 -15233160697748693308753723844417745123925452467287430890759526783230163418615081118111162189739852064680984518762039784200095112782225412525060543514472125705127846311445195147033483805613228423513649446912.000000 54405227996093423104403637167307995451088119882066864878214630487175032669729768976995635550513144235335814291651794889406821172389081729532992387247898922271832949399826127078926871673503422547336701673472.000000 132320697088325239321379835915102453076665997958215678901480142257998918390466261197151913730165877101392726845978063488363947716508490347824099949529270499379438137881490876385293063092690976064889291800576.000000 -472583322432638743072146076708862861512980138764140567005772616625668585712631282364768286072472938923393150115381516949454851211193694988902109911053153937031224736687571708277015210920310601235551003607040.000000 5249901892746900924361035293022532874796755078456818346970003509338511098641619645859538135768225752115500528015412282006113073001690142863401463016498845890814228503881744364789362431228022705385036054528.000000 -18750022736530950001045702643322387316603773359522859401646446880021530776061118126868169136155209922524765903529068600680919036797654094427883423150907528247753911295655701716328389160183935268557821050880.000000
 10499803785493801848722070586045065749593510156913636693940007018677022197283239291719076271536451504231001056030824564012226146003380285726802926032997691781628457007763488729578724862456045410770072109056.000000 -37500045473061900002091405286644774633207546719045718803292893760043061552122236253736338272310419845049531807058137201361838073595308188855766846301815056495507822591311403432656778320367870537115642101760.000000 10499803785493801848722070586045065749593510156913636693940007018677022197283239291719076271536451504231001056030824564012226146003380285726802926032997691781628457007763488729578724862456045410770072109056.000000 -37500045473061900002091405286644774633207546719045718803292893760043061552122236253736338272310419845049531807058137201361838073595308188855766846301815056495507822591311403432656778320367870537115642101760.000000 10499803785493801848722070586045065749593510156913636693940007018677022197283239291719076271536451504231001056030824564012226146003380285726802926032997691781628457007763488729578724862456045410770072109056.000000 -37500045473061900002091405286644774633207546719045718803292893760043061552122236253736338272310419845049531807058137201361838073595308188855766846301815056495507822591311403432656778320367870537115642101760.000000 10499803785493801848722070586045065749593510156913636693940007018677022197283239291719076271536451504231001056030824564012226146003380285726802926032997691781628457007763488729578724862456045410770072109056.000000 -37500045473061900002091405286644774633207546719045718803292893760043061552122236253736338272310419845049531807058137201361838073595308188855766846301815056495507822591311403432656778320367870537115642101760.000000 10499803785493801848722070586045065749593510156913636693940007018677022197283239291719076271536451504231001056030824564012226146003380285726802926032997691781628457007763488729578724862456045410770072109056.000000 -37500045473061900002091405286644774633207546719045718803292893760043061552122236253736338272310419845049531807058137201361838073595308188855766846301815056495507822591311403432656778320367870537115642101760.000000
 -13.790088 8.869037 -16.322476 -36.392597 -12.678197 -10.968666 8.014141 -14.972543 -32.825753 -11.381359 -14.980356 9.155962 -16.750397 -37.747799 -13.094986 -10.139139 7.923301 -14.769991 -31.857391 -11.134408 -11.602459 8.176791 -15.308920 -33.328634 -11.621129
 -24988427.509590 -137175459.827681 -86813682.956271 433608943.765524 -10006802.636560 -379950563.387696 23251466.222066 -768398785.687860 -20759306.678123 -199411370.626868
 -7.518944 -131.930202 -7.076389 -123.448603 -8.060578 -134.557084 -6.800653 -121.682013 -7.739473 -125.090636