 -77914978571340508694350512972405875569330751712748516671488.000000 -414069352382221305139403367849469311180583177098979509796864.000000 -134914606454178982962708706928855419951405039520179413843968.000000 -10191731972096023326679421534561507019493556719834311426048.000000 -218852179129164592597447800567688359778200329181543394181120.000000 -170866549832655892367061950799362794635488957194186451320832.000000 -908048785102491023188017774261349202160504185749272776409088.000000 -295866003553461877868621387643171191079576081683203431071744.000000 -22350337647808410859417392454580520417340972399407310831616.000000 -479940025099532997724108283844943238354194248865514942103552.000000 -126535118084044894503611110587474970200504916666632978300928.000000 -672454967701686496006197728346605305341287436879530125426688.000000 -219103386434368831070750598598989718527010191058230707224576.000000 -16551528758867737657946014970567580066662588825175595155456.000000 -355419289549102526111716043464102007473634556375102690164736.000000 -1003496935484.371582 2903333416177.946777 -3953965424656.095703 -8833764736895.199219 -2824441044772.074219 -18073.941843 -23232.604356 -4753.618108 -7300.532603 -24040.733583
 -8358663014599728036819883607411520910587711471564094360807683217289781642993489175959683382346926172571272026414367753434820314684496781076259544609330311758634357724463395803311087544654197808943052293685457052967329807265302339861805707609129743213030405119476275007981985713881088.000000 -3307336336502384605764137177464384232038699038647555336997022940637586419182657937951205948730021131238206917997656634801583709104374884884650684986992251376336610700928084043687052431347143127478716565096111948609700377093798447522055042408412917404250684663458835327413682291343360.000000 28526304341063979834200488559555363415787267973018762453482178153159519783108135370766812203038002953470284342553525670312106436041681236885808997882743836957487626874851834451910136369430931272310074798225280204772305698766585880300369251136909477155343496986439252269088278600220672.000000 11287221739713186169930693923325878797934478220689364433191034009871234600263592625506291217181544675683294141640880706784123178011552219621730837137139972768660661242852079741598513809452716771251784068984352893437066510674562127829193314531371296690373258683959895268479896916066304.000000 -16520979497573577205129234898455021135788825597392048611204172963365538813577891997781721272639766433605098892744954860309167121175475746131193123621085029209491836103666952125250023567221554910000476296072584580321580760437740882460120291326880806159126365584721912047111754422943744.000000 -6536982734140363714417538251056235756508500523353650927008519406898145414696725917724831933089739027813950372644821074090187158467361474867385401268172252157418956870382145201389247042292057200640321323978037821433726381709451767061785793771588514633892265186033400926066986878763008.000000 -80719096859810626742482128890222254496933843531740996682542920283601709533315228777062604283283576331793701020279796511847684442190163366705286280072354237519347017837150878357229041150074806221652114554970981138195084310258308632558928935173079616471577212039053692439414756253630464.000000 -31938744465210590767089740143243605749946872410419117824476249189198955096816915362998760721745005202368793526534804294905668117106135957538084647366895445285981589222495949187832947078013121381511320265711427759819133561262657393361907418679074601210972422410766178564070201951780864.000000 -23795072304684041538392958713799468590111427184575738082564857997988283375665041481923485303926627618630598675328606469839967825836587500809091681647914855932408665965274264759172707062890384336171164665795923785895965446899286602897109515514320939560693498632572265710108702492590080.000000 -9415178854025331390966140147469912135756025098115807537752655337967269862504539855367616091177379823506853185207331252226887674551855522323763360889128097802131756894467617891479564360886235541946565901275282251209433738994063328562287248068356194138275433182885873945921071542697984.000000
 -18833753696052622663796212572663258315482334662586112469729542144.000000 -7452095848689293034282423293433867036496554231671847401245638656.000000 -18835251178313911154153201952387801706655809544977179864293441536.000000 -7452688368986783008047574333976030608224073076268428474307313664.000000 -25273342377789296824915319042975856573630667474943938667531468800.000000 -10000097317588950643671376963354039487243873391949659970711060480.000000 -37661980794422315011976062409204241780033009915516019534426598431613790938673922518722121830814636959633377767790728042990202521292116803633792366977985461695884739330441487245874748398374912398196490927446703191484540110779255058286485527009293848590612330138005439652362126255718400.000000 -14902004946064063246408346599473879109308626113824676901460637533662631136105732299147567733001654711509449830077612989713369603987119665895433645998670565257386715162452805606861267806939030529886358985832214746469074888031523387590190789827087151410293579820104426743919333898977280.000000 -29247897963224889382357958656.000000 -11572740225455772380239495168.000000
 -680.589497 -1689.580112 8.164445 54.244894 -825.973410 -696.629698 -1729.226912 8.239363 55.090708 -845.585570 -695.174793 -1725.772335 8.310817 55.171969 -843.731454 -696.825993 -1729.550299 8.603221 55.684343 -845.445717 -700.965975 -1740.048945 8.291181 55.330982 -850.760770
 -238391.990900 -56579998059969.265625 -583588.586489 40037335164319.109375 -5990.047297 -35520162920809.312500 -3212.233798 -110350660772453.218750 -294468.275486 -37844988545739.093750
 -8577.378883 312.338326 -8782.878262 328.125928 -8764.728857 328.604312 -8783.894288 340.678954 -8838.640904 332.997646