 168.862309 1299.762221 333.645080 -421.725700 488.707156 -172454247.657256 -812779016.104977 -45721460.080378 286342699.843226 -324072298.901385 114312.329553 1686460.922723 24617.462152 -544856.108702 634035.584701 -53629.317519 -135989.183855 -3870.153482 45258.060240 -45187.531310 546745.356439 8064930.270551 117822.070124 -2605569.567074 3032067.985655
 -42841924770430143927494770506458711719936000.000000 131838602646105018864161908042463282253004800.000000 178844402418736205445056750782970615006494720.000000 -550362670031936321099626953260231893687730176.000000 -2606237995400060296919028261436707884236800.000000 8020245993101257482735196720157328708468736.000000 8313612176207786287439212726521511083507712.000000 -25583701435590656489505557486614847250497536.000000 -38531609181429482079471454500706771120685056.000000 118574353029321689368624431014101006587789312.000000
 -132550506612421910552595287013473466238107648.000000 407901224453744733938644292965112002901966848.000000 54649783705992100502531836729710057017573376.000000 -168175243230018959575867088949903362399141888.000000 15325872094917961580524706893440891182120960.000000 -47162716711592726881235151741489381250170880.000000 54649783705992100502531836729710057017573376.000000 -168175243230018959575867088949903362399141888.000000 15325872094917961580524706893440891182120960.000000 -47162716711592726881235151741489381250170880.000000
 -116743864441552132078242541336090640384.000000 364623311141982155204618604258617458688.000000 -307091937296778554022741196877452017664.000000 -600666187748608613200322379979566350336.000000 -157449885089333367850110450769372119040.000000 -124432668246412901662207848583830437888.000000 388637567612419504599829466719335743488.000000 -327317151420229628223609285158685900800.000000 -640226335015490614587736104024062033920.000000 -167819605856593431103401990749289447424.000000 -129214602505147118876312816740294721536.000000 403572868164817171848347922370094170112.000000 -339895914874438641640574309467900870656.000000 -664830165246726393932004394589302554624.000000 -174268895531421675356976871020563529728.000000 -128202760235224402201072329251310534656.000000 400412605477116311816780929364150714368.000000 -337234288035240534990870901898688331776.000000 -659624072046156871417464140082236620800.000000 -172904246092327390415391325796001906688.000000 -122351046183658675876903774119868235776.000000 382136087361629515709612067161018204160.000000 -321841494476468319511989966430709743616.000000 -629516050627106592202694472304752066560.000000 -165012167914155232676009894898932121600.000000
 -1875.111966 -39065443306367399143609039286144923074560.000000 -25183.663527 122012161904477763310937942957516918882304.000000 -3667.154219 -102760712296927426304692511561267357417472.000000 15532.218870 -200998065429751241826414324891592391917568.000000 -9710.769502 -52686705112719989591435084978990409056256.000000
 -8478.885911 -1598755606086785499365881222454415720448.000000 -8573.807655 -1705810097510515403619722085318459916288.000000 -8292.639368 -1772504537758662357023795816925436575744.000000 -7615.252940 -1758384918376638616212169861954489286656.000000 -8952.683993 -1676804606958970765866806939270569263104.000000